<?xml version="1.0"?>
<opencv_storage>
<stage8>
  <maxWeakCount>7</maxWeakCount>
  <stageThreshold>-9.8323768377304077e-01</stageThreshold>
  <weakClassifiers>
    <_>
      <internalNodes>
        0 -1 85157 2.5135226547718048e-02</internalNodes>
      <leafValues>
        -8.8390499353408813e-01 2.8925618529319763e-01</leafValues></_>
    <_>
      <internalNodes>
        0 -1 150317 1.1806395836174488e-02</internalNodes>
      <leafValues>
        -4.9383634328842163e-01 7.9704403877258301e-01</leafValues></_>
    <_>
      <internalNodes>
        0 -1 11727 3.9539402350783348e-03</internalNodes>
      <leafValues>
        3.4574487805366516e-01 -6.6508460044860840e-01</leafValues></_>
    <_>
      <internalNodes>
        0 -1 81161 -5.2687861025333405e-03</internalNodes>
      <leafValues>
        6.5436744689941406e-01 -4.0363740921020508e-01</leafValues></_>
    <_>
      <internalNodes>
        0 -1 71195 -2.2136461734771729e-01</internalNodes>
      <leafValues>
        -5.3046983480453491e-01 4.4133216142654419e-01</leafValues></_>
    <_>
      <internalNodes>
        0 -1 5871 -5.1681121112778783e-04</internalNodes>
      <leafValues>
        -6.0904085636138916e-01 4.3420979380607605e-01</leafValues></_>
    <_>
      <internalNodes>
        0 -1 119 2.0138308405876160e-02</internalNodes>
      <leafValues>
        -4.2314577102661133e-01 6.7742210626602173e-01</leafValues></_></weakClassifiers></stage8>
</opencv_storage>
