<?xml version="1.0"?>
<opencv_storage>
<stage6>
  <maxWeakCount>6</maxWeakCount>
  <stageThreshold>-1.0726662874221802e+00</stageThreshold>
  <weakClassifiers>
    <_>
      <internalNodes>
        0 -1 31821 1.7668154835700989e-01</internalNodes>
      <leafValues>
        -8.7335091829299927e-01 2.5619834661483765e-01</leafValues></_>
    <_>
      <internalNodes>
        0 -1 25784 1.9899798557162285e-02</internalNodes>
      <leafValues>
        -5.3071039915084839e-01 8.0616021156311035e-01</leafValues></_>
    <_>
      <internalNodes>
        0 -1 51934 5.1819700747728348e-03</internalNodes>
      <leafValues>
        -7.8248727321624756e-01 4.0959939360618591e-01</leafValues></_>
    <_>
      <internalNodes>
        0 -1 144268 -1.1241864413022995e-03</internalNodes>
      <leafValues>
        3.1097981333732605e-01 -8.2331418991088867e-01</leafValues></_>
    <_>
      <internalNodes>
        0 -1 141474 -3.1057484447956085e-02</internalNodes>
      <leafValues>
        -6.8089330196380615e-01 3.9351221919059753e-01</leafValues></_>
    <_>
      <internalNodes>
        0 -1 23373 -1.0778245516121387e-02</internalNodes>
      <leafValues>
        4.0939021110534668e-01 -7.0716601610183716e-01</leafValues></_></weakClassifiers></stage6>
</opencv_storage>
